<?xml version='1.0' ?>

<STATISTICS>
    <DELIVERED-PACKETS> 48.5461 </DELIVERED-PACKETS>
    <LIFE-TIME-PDF> 
        <COLLECTED> 2521 </COLLECTED>
        <MIN> 0 </MIN>
        <MEAN> 4204.65 </MEAN>
        <MAX> 42516.6 </MAX>
        <VARIANCE> 5.42452e+007 </VARIANCE>
        <BASEPOINT> 0 </BASEPOINT>
        <CELL-SIZE> 460.335 </CELL-SIZE>
        <NUM-CELLS> 30 </NUM-CELLS>
        <VALUES> 
0.00111934  9.65098e-005  6.37654e-005  6.46271e-005  4.82549e-005  4.82549e-005  3.79146e-005  3.18827e-005  3.01593e-005  4.65315e-005  2.75742e-005  2.75742e-005  1.80956e-005  2.49891e-005  3.36061e-005  1.46488e-005  2.49891e-005  2.75742e-005  1.63722e-005  1.89573e-005  8.61694e-006  1.63722e-005  1.03403e-005  5.17017e-006  1.63722e-005  1.20637e-005  1.1202e-005  9.47864e-006  1.03403e-005  1.63722e-005  
        </VALUES> 
        <OVERFLOW-CELL> 272 </OVERFLOW-CELL>
        <UNDERFLOW-CELL> 0 </UNDERFLOW-CELL>
    </LIFE-TIME-PDF> 
    <ICT-PDF> 
        <COLLECTED> 320 </COLLECTED>
        <MIN> 0.198868 </MIN>
        <MEAN> 2890.48 </MEAN>
        <MAX> 42871.3 </MAX>
        <VARIANCE> 3.49401e+007 </VARIANCE>
        <BASEPOINT> 0 </BASEPOINT>
        <CELL-SIZE> 2014.91 </CELL-SIZE>
        <NUM-CELLS> 30 </NUM-CELLS>
        <VALUES> 
0.00034586  5.4283e-005  2.94679e-005  1.08566e-005  2.01622e-005  9.30565e-006  0  1.55094e-006  1.55094e-006  6.20377e-006  1.55094e-006  6.20377e-006  4.65282e-006  0  1.55094e-006  0  0  0  0  1.55094e-006  0  1.55094e-006  
        </VALUES> 
        <OVERFLOW-CELL> 0 </OVERFLOW-CELL>
        <UNDERFLOW-CELL> 0 </UNDERFLOW-CELL>
    </ICT-PDF> 
<STATISTICS>
