<?xml version='1.0' ?>

<STATISTICS>
    <DELIVERED-PACKETS> 59.9169 </DELIVERED-PACKETS>
    <LIFE-TIME-PDF> 
        <COLLECTED> 3172 </COLLECTED>
        <MIN> 0 </MIN>
        <MEAN> 4200.32 </MEAN>
        <MAX> 43795.4 </MAX>
        <VARIANCE> 5.39047e+007 </VARIANCE>
        <BASEPOINT> 0 </BASEPOINT>
        <CELL-SIZE> 498.007 </CELL-SIZE>
        <NUM-CELLS> 30 </NUM-CELLS>
        <VALUES> 
0.00103186  7.7864e-005  6.64693e-005  5.63406e-005  4.6212e-005  4.55789e-005  4.6212e-005  3.60833e-005  3.41842e-005  3.79824e-005  2.53216e-005  3.1019e-005  2.65877e-005  2.21564e-005  2.65877e-005  2.27895e-005  2.27895e-005  2.02573e-005  2.34225e-005  1.39269e-005  1.39269e-005  1.45599e-005  1.89912e-005  1.39269e-005  8.86257e-006  8.22953e-006  9.49561e-006  1.20278e-005  1.20278e-005  4.43129e-006  
        </VALUES> 
        <OVERFLOW-CELL> 281 </OVERFLOW-CELL>
        <UNDERFLOW-CELL> 0 </UNDERFLOW-CELL>
    </LIFE-TIME-PDF> 
    <ICT-PDF> 
        <COLLECTED> 339 </COLLECTED>
        <MIN> 0.0784299 </MIN>
        <MEAN> 3139.34 </MEAN>
        <MAX> 44671.1 </MAX>
        <VARIANCE> 3.43381e+007 </VARIANCE>
        <BASEPOINT> 0 </BASEPOINT>
        <CELL-SIZE> 1867.84 </CELL-SIZE>
        <NUM-CELLS> 30 </NUM-CELLS>
        <VALUES> 
0.000344284  6.00127e-005  3.79028e-005  2.52685e-005  1.42135e-005  7.89641e-006  1.89514e-005  3.15857e-006  4.73785e-006  1.57928e-006  4.73785e-006  1.57928e-006  3.15857e-006  1.57928e-006  0  0  1.57928e-006  0  1.57928e-006  0  1.57928e-006  0  0  1.57928e-006  
        </VALUES> 
        <OVERFLOW-CELL> 0 </OVERFLOW-CELL>
        <UNDERFLOW-CELL> 0 </UNDERFLOW-CELL>
    </ICT-PDF> 
<STATISTICS>
