<?xml version='1.0' ?>

<STATISTICS>
    <DELIVERED-PACKETS> 52.7543 </DELIVERED-PACKETS>

    <LIFE-TIME-HISTOGRAM> 
        <COLLECTED> 2806 </COLLECTED>
        <MIN> 0 </MIN>
        <MEAN> 597.203 </MEAN>
        <MAX> 12170.2 </MAX>
        <VARIANCE> 2.39253e+006 </VARIANCE>
        <OVERFLOW-CELL> 190 </OVERFLOW-CELL>
        <UNDERFLOW-CELL> 0 </UNDERFLOW-CELL>
        <CELLS> 30 </CELLS>
        <CELL-WIDTH> 92.2146 </CELL-WIDTH>
        <LEFT-BOUND> 0 </LEFT-BOUND>
        <RIGHT-BOUND> 2766.44 </RIGHT-BOUND>
        <PDF-VALS> 
0.0078878  0.000166181  0.000146858  0.000162316  0.000135264  0.000100481  0.000100481  0.00011594  6.95641e-005  6.18348e-005  7.72935e-005  6.56994e-005  8.11581e-005  6.56994e-005  7.72935e-005  5.02407e-005  7.34288e-005  6.18348e-005  7.34288e-005  3.86467e-005  4.63761e-005  5.41054e-005  7.72935e-005  5.02407e-005  4.63761e-005  6.18348e-005  3.47821e-005  3.86467e-005  4.25114e-005  4.63761e-005  
        </PDF-VALS> 
        <CDF-VALS> 
0.0078878  0.00805398  0.00820084  0.00836315  0.00849841  0.0085989  0.00869938  0.00881532  0.00888488  0.00894672  0.00902401  0.00908971  0.00917087  0.00923657  0.00931386  0.0093641  0.00943753  0.00949937  0.00957279  0.00961144  0.00965782  0.00971192  0.00978922  0.00983946  0.00988583  0.00994767  0.00998245  0.0100211  0.0100636  0.01011  
        </CDF-VALS> 
        <CCDF-VALS> 
0.00222219  0.00205601  0.00190915  0.00174683  0.00161157  0.00151109  0.00141061  0.00129467  0.0012251  0.00116327  0.00108597  0.00102027  0.000939115  0.000873416  0.000796123  0.000745882  0.000672453  0.000610618  0.000537189  0.000498543  0.000452167  0.000398061  0.000320768  0.000270527  0.000224151  0.000162316  0.000127534  8.88875e-005  4.63761e-005  0  
        </CCDF-VALS> 
    </LIFE-TIME-HISTOGRAM> 

    <ICT-PDF-HISTOGRAM> 
        <COLLECTED> 329 </COLLECTED>
        <MIN> 0.134149 </MIN>
        <MEAN> 2072.38 </MEAN>
        <MAX> 26897.8 </MAX>
        <VARIANCE> 1.33622e+007 </VARIANCE>
        <OVERFLOW-CELL> 0 </OVERFLOW-CELL>
        <UNDERFLOW-CELL> 0 </UNDERFLOW-CELL>
        <CELLS> 30 </CELLS>
        <CELL-WIDTH> 1972.13 </CELL-WIDTH>
        <LEFT-BOUND> 0 </LEFT-BOUND>
        <RIGHT-BOUND> 59163.9 </RIGHT-BOUND>
        <PDF-VALS> 
0.000357566  7.2438e-005  2.6201e-005  1.69536e-005  7.70617e-006  7.70617e-006  9.2474e-006  4.6237e-006  0  0  1.54123e-006  1.54123e-006  0  1.54123e-006  0  0  0  0  0  0  0  0  0  0  0  0  0  0  0  0  
        </PDF-VALS> 
        <CDF-VALS> 
0.000357566  0.000430004  0.000456205  0.000473159  0.000480865  0.000488571  0.000497818  0.000502442  0.000502442  0.000502442  0.000503983  0.000505524  0.000505524  0.000507066  0.000507066  0.000507066  0.000507066  0.000507066  0.000507066  0.000507066  0.000507066  0.000507066  0.000507066  0.000507066  0.000507066  0.000507066  0.000507066  0.000507066  0.000507066  0.000507066  
        </CDF-VALS> 
        <CCDF-VALS> 
0.0001495  7.70617e-005  5.08607e-005  3.39071e-005  2.6201e-005  1.84948e-005  9.2474e-006  4.6237e-006  4.6237e-006  4.6237e-006  3.08247e-006  1.54123e-006  1.54123e-006  0  0  0  0  0  0  0  0  0  0  0  0  0  0  0  0  0  
        </CCDF-VALS> 
    </ICT-PDF-HISTOGRAM> 
</STATISTICS>
